{
  "learner": {
    "attributes": {
      "best_iteration": "99",
      "best_ntree_limit": "100",
      "scikit_learn": "{\"use_label_encoder\": null, \"n_estimators\": 100, \"objective\": \"multi:softprob\", \"max_depth\": 3, \"max_leaves\": null, \"max_bin\": null, \"grow_policy\": null, \"learning_rate\": 1, \"verbosity\": null, \"booster\": null, \"tree_method\": null, \"gamma\": null, \"min_child_weight\": null, \"max_delta_step\": null, \"subsample\": null, \"sampling_method\": null, \"colsample_bytree\": null, \"colsample_bylevel\": null, \"colsample_bynode\": null, \"reg_alpha\": null, \"reg_lambda\": null, \"scale_pos_weight\": null, \"base_score\": null, \"missing\": NaN, \"num_parallel_tree\": null, \"random_state\": null, \"n_jobs\": null, \"monotone_constraints\": null, \"interaction_constraints\": null, \"importance_type\": null, \"gpu_id\": null, \"validate_parameters\": null, \"predictor\": null, \"enable_categorical\": false, \"feature_types\": null, \"max_cat_to_onehot\": null, \"max_cat_threshold\": null, \"eval_metric\": null, \"early_stopping_rounds\": null, \"callbacks\": null, \"classes_\": [0, 1, 2], \"n_classes_\": 3, \"_estimator_type\": \"classifier\"}"
    },
    "feature_names": [],
    "feature_types": [],
    "gradient_booster": {
      "model": {
        "gbtree_model_param": {
          "num_parallel_tree": "1",
          "num_trees": "300",
          "size_leaf_vector": "0"
        },
        "tree_info": [
          0, 1, 2, 0, 1, 2, 0, 1, 2, 0, 1, 2, 0, 1, 2, 0, 1, 2, 0, 1, 2, 0, 1,
          2, 0, 1, 2, 0, 1, 2, 0, 1, 2, 0, 1, 2, 0, 1, 2, 0, 1, 2, 0, 1, 2, 0,
          1, 2, 0, 1, 2, 0, 1, 2, 0, 1, 2, 0, 1, 2, 0, 1, 2, 0, 1, 2, 0, 1, 2,
          0, 1, 2, 0, 1, 2, 0, 1, 2, 0, 1, 2, 0, 1, 2, 0, 1, 2, 0, 1, 2, 0, 1,
          2, 0, 1, 2, 0, 1, 2, 0, 1, 2, 0, 1, 2, 0, 1, 2, 0, 1, 2, 0, 1, 2, 0,
          1, 2, 0, 1, 2, 0, 1, 2, 0, 1, 2, 0, 1, 2, 0, 1, 2, 0, 1, 2, 0, 1, 2,
          0, 1, 2, 0, 1, 2, 0, 1, 2, 0, 1, 2, 0, 1, 2, 0, 1, 2, 0, 1, 2, 0, 1,
          2, 0, 1, 2, 0, 1, 2, 0, 1, 2, 0, 1, 2, 0, 1, 2, 0, 1, 2, 0, 1, 2, 0,
          1, 2, 0, 1, 2, 0, 1, 2, 0, 1, 2, 0, 1, 2, 0, 1, 2, 0, 1, 2, 0, 1, 2,
          0, 1, 2, 0, 1, 2, 0, 1, 2, 0, 1, 2, 0, 1, 2, 0, 1, 2, 0, 1, 2, 0, 1,
          2, 0, 1, 2, 0, 1, 2, 0, 1, 2, 0, 1, 2, 0, 1, 2, 0, 1, 2, 0, 1, 2, 0,
          1, 2, 0, 1, 2, 0, 1, 2, 0, 1, 2, 0, 1, 2, 0, 1, 2, 0, 1, 2, 0, 1, 2,
          0, 1, 2, 0, 1, 2, 0, 1, 2, 0, 1, 2, 0, 1, 2, 0, 1, 2, 0, 1, 2, 0, 1, 2
        ],
        "trees": [
          {
            "base_weights": [-4.388072e-8, 1.4201183, -7.2948337e-1],
            "categories": [],
            "categories_nodes": [],
            "categories_segments": [],
            "categories_sizes": [],
            "default_left": [1, 0, 0],
            "id": 0,
            "left_children": [1, -1, -1],
            "loss_changes": [5.732271e1, 0, 0],
            "parents": [2147483647, 0, 0],
            "right_children": [2, -1, -1],
            "split_conditions": [2.45, 1.4201183, -7.2948337e-1],
            "split_indices": [2, 0, 0],
            "split_type": [0, 0, 0],
            "sum_hessian": [5.333333e1, 1.7777777e1, 3.5555553e1],
            "tree_param": {
              "num_deleted": "0",
              "num_feature": "4",
              "num_nodes": "3",
              "size_leaf_vector": "0"
            }
          },
          {
            "base_weights": [
              1.8404864e-2, -7.100592e-1, 3.9209723e-1, 1.1904762,
              -6.4429533e-1, 1.3636364, -3.2511625e-8, -2.5544848e-8,
              -7.0072997e-1
            ],
            "categories": [],
            "categories_nodes": [],
            "categories_segments": [],
            "categories_sizes": [],
            "default_left": [1, 0, 1, 1, 1, 0, 0, 0, 0],
            "id": 1,
            "left_children": [1, -1, 3, 5, 7, -1, -1, -1, -1],
            "loss_changes": [
              1.5069112e1, 0, 3.1014328e1, 4.3290043, 6.019697e-1, 0, 0, 0, 0
            ],
            "parents": [2147483647, 0, 0, 2, 2, 3, 3, 4, 4],
            "right_children": [2, -1, 4, 6, 8, -1, -1, -1, -1],
            "split_conditions": [
              2.45, -7.100592e-1, 1.75, 4.95, 4.8500004, 1.3636364,
              -3.2511625e-8, -2.5544848e-8, -7.0072997e-1
            ],
            "split_indices": [2, 0, 3, 2, 2, 0, 0, 0, 0],
            "split_type": [0, 0, 0, 0, 0, 0, 0, 0, 0],
            "sum_hessian": [
              5.333333e1, 1.7777777e1, 3.5555553e1, 1.9999998e1, 1.5555554e1,
              1.7333332e1, 2.6666665, 1.3333333, 1.4222221e1
            ],
            "tree_param": {
              "num_deleted": "0",
              "num_feature": "4",
              "num_nodes": "9",
              "size_leaf_vector": "0"
            }
          },
          {
            "base_weights": [
              -1.8404953e-2, -7.0031554e-1, 1.1767956, -7.2631586e-1,
              -3.658537e-1, 2.926829e-1, 1.3489933, -2.5544848e-8, -5.172414e-1,
              -1.2000003e-1, 5.9999996e-1, 4.285714e-1, 1.4014598
            ],
            "categories": [],
            "categories_nodes": [],
            "categories_segments": [],
            "categories_sizes": [],
            "default_left": [1, 1, 1, 0, 1, 1, 1, 0, 0, 0, 0, 0, 0],
            "id": 2,
            "left_children": [1, 3, 5, -1, 7, 9, 11, -1, -1, -1, -1, -1, -1],
            "loss_changes": [
              4.510687e1, 4.0575027e-2, 2.666933, 0, 2.5231284e-1, 6.497562e-1,
              1.9886589e-1, 0, 0, 0, 0, 0, 0
            ],
            "parents": [2147483647, 0, 0, 1, 1, 2, 2, 4, 4, 5, 5, 6, 6],
            "right_children": [2, 4, 6, -1, 8, 10, 12, -1, -1, -1, -1, -1, -1],
            "split_conditions": [
              4.75, 1.45, 1.75, -7.2631586e-1, 5.75, 5.05, 4.8500004,
              -2.5544848e-8, -5.172414e-1, -1.2000003e-1, 5.9999996e-1,
              4.285714e-1, 1.4014598
            ],
            "split_indices": [2, 3, 3, 0, 0, 2, 2, 0, 0, 0, 0, 0, 0],
            "split_type": [0, 0, 0, 0, 0, 0, 0, 0, 0, 0, 0, 0, 0],
            "sum_hessian": [
              5.333333e1, 3.422222e1, 1.911111e1, 3.0666664e1, 3.5555553,
              3.5555553, 1.5555554e1, 1.3333333, 2.222222, 1.7777777, 1.7777777,
              1.3333333, 1.4222221e1
            ],
            "tree_param": {
              "num_deleted": "0",
              "num_feature": "4",
              "num_nodes": "13",
              "size_leaf_vector": "0"
            }
          },
          {
            "base_weights": [-2.4939368e-2, 5.715743e-1, -5.2577e-1],
            "categories": [],
            "categories_nodes": [],
            "categories_segments": [],
            "categories_sizes": [],
            "default_left": [1, 0, 0],
            "id": 3,
            "left_children": [1, -1, -1],
            "loss_changes": [8.725081, 0, 0],
            "parents": [2147483647, 0, 0],
            "right_children": [2, -1, -1],
            "split_conditions": [2.45, 5.715743e-1, -5.2577e-1],
            "split_indices": [2, 0, 0],
            "split_type": [0, 0, 0],
            "sum_hessian": [2.7199163e1, 1.2349297e1, 1.4849866e1],
            "tree_param": {
              "num_deleted": "0",
              "num_feature": "4",
              "num_nodes": "3",
              "size_leaf_vector": "0"
            }
          },
          {
            "base_weights": [
              4.0002833e-3, -4.8362854e-1, 1.6852337e-1, 4.6396872e-1,
              -3.7005213e-1, 5.858738e-1, -1.9918367e-1, -5.6344765e-1,
              -1.779395e-1
            ],
            "categories": [],
            "categories_nodes": [],
            "categories_segments": [],
            "categories_sizes": [],
            "default_left": [1, 0, 1, 1, 1, 0, 0, 0, 0],
            "id": 4,
            "left_children": [1, -1, 3, 5, 7, -1, -1, -1, -1],
            "loss_changes": [
              2.5282924, 0, 3.9183412, 1.3817697, 2.3030925e-1, 0, 0, 0, 0
            ],
            "parents": [2147483647, 0, 0, 2, 2, 3, 3, 4, 4],
            "right_children": [2, -1, 4, 6, 8, -1, -1, -1, -1],
            "split_conditions": [
              2.45, -4.8362854e-1, 1.6500001, 4.95, 2.95, 5.858738e-1,
              -1.9918367e-1, -5.6344765e-1, -1.779395e-1
            ],
            "split_indices": [2, 0, 3, 2, 1, 0, 0, 0, 0],
            "split_type": [0, 0, 0, 0, 0, 0, 0, 0, 0],
            "sum_hessian": [
              2.9498632e1, 6.9525223, 2.254611e1, 1.4648782e1, 7.8973284,
              1.2472531e1, 2.1762512, 2.9722888, 4.92504
            ],
            "tree_param": {
              "num_deleted": "0",
              "num_feature": "4",
              "num_nodes": "9",
              "size_leaf_vector": "0"
            }
          },
          {
            "base_weights": [
              1.9388288e-2, -4.5450485e-1, 4.6260425e-1, -5.109948e-1,
              -5.1997337e-2, 2.4561745e-1, 5.849554e-1, 4.0625572e-1,
              -1.1950697e-1
            ],
            "categories": [],
            "categories_nodes": [],
            "categories_segments": [],
            "categories_sizes": [],
            "default_left": [1, 1, 1, 0, 0, 1, 0, 0, 0],
            "id": 5,
            "left_children": [1, 3, 5, -1, -1, 7, -1, -1, -1],
            "loss_changes": [
              6.507247, 3.1433892e-1, 2.8076196e-1, 0, 0, 4.8775142e-1, 0, 0, 0
            ],
            "parents": [2147483647, 0, 0, 1, 1, 2, 2, 5, 5],
            "right_children": [2, 4, 6, -1, -1, 8, -1, -1, -1],
            "split_conditions": [
              4.75, 1.45, 5.1499996, -5.109948e-1, -5.1997337e-2, 2.9,
              5.849554e-1, 4.0625572e-1, -1.1950697e-1
            ],
            "split_indices": [2, 3, 2, 0, 0, 1, 0, 0, 0],
            "split_type": [0, 0, 0, 0, 0, 0, 0, 0, 0],
            "sum_hessian": [
              2.8980387e1, 1.3993189e1, 1.4987197e1, 1.2034657e1, 1.9585327,
              6.4881315, 8.499065, 4.4275565, 2.0605752
            ],
            "tree_param": {
              "num_deleted": "0",
              "num_feature": "4",
              "num_nodes": "9",
              "size_leaf_vector": "0"
            }
          },
          {
            "base_weights": [-4.3711167e-2, 4.5787448e-1, -4.6092328e-1],
            "categories": [],
            "categories_nodes": [],
            "categories_segments": [],
            "categories_sizes": [],
            "default_left": [1, 0, 0],
            "id": 6,
            "left_children": [1, -1, -1],
            "loss_changes": [2.9951956, 0, 0],
            "parents": [2147483647, 0, 0],
            "right_children": [2, -1, -1],
            "split_conditions": [2.45, 4.5787448e-1, -4.6092328e-1],
            "split_indices": [2, 0, 0],
            "split_type": [0, 0, 0],
            "sum_hessian": [1.2304259e1, 5.5429215, 6.761338],
            "tree_param": {
              "num_deleted": "0",
              "num_feature": "4",
              "num_nodes": "3",
              "size_leaf_vector": "0"
            }
          },
          {
            "base_weights": [
              1.1183644e-2, 1.2352382e-1, -4.0281606e-1, -3.8807586e-1,
              2.9473078e-1, 4.388187e-1, -8.4732726e-2
            ],
            "categories": [],
            "categories_nodes": [],
            "categories_segments": [],
            "categories_sizes": [],
            "default_left": [1, 1, 0, 0, 1, 0, 0],
            "id": 7,
            "left_children": [1, 3, -1, -1, 5, -1, -1],
            "loss_changes": [8.3279103e-1, 1.3413388, 0, 0, 6.421217e-1, 0, 0],
            "parents": [2147483647, 0, 0, 1, 1, 4, 4],
            "right_children": [2, 4, -1, -1, 6, -1, -1],
            "split_conditions": [
              5.1499996, 2.45, -4.0281606e-1, -3.8807586e-1, 1.6500001,
              4.388187e-1, -8.4732726e-2
            ],
            "split_indices": [2, 2, 0, 0, 3, 0, 0],
            "split_type": [0, 0, 0, 0, 0, 0, 0],
            "sum_hessian": [
              1.58362465e1, 1.3008091e1, 2.828155, 2.9440355, 1.0064055e1,
              7.1809316, 2.8831244
            ],
            "tree_param": {
              "num_deleted": "0",
              "num_feature": "4",
              "num_nodes": "7",
              "size_leaf_vector": "0"
            }
          },
          {
            "base_weights": [
              2.330657e-2, -3.0203444e-1, 3.923826e-1, -4.573041e-1,
              1.7378055e-1, 4.7143757e-1, 1.0605521e-1, 5.942076e-1,
              1.1606164e-1
            ],
            "categories": [],
            "categories_nodes": [],
            "categories_segments": [],
            "categories_sizes": [],
            "default_left": [1, 1, 1, 0, 0, 1, 0, 0, 0],
            "id": 8,
            "left_children": [1, 3, 5, -1, -1, 7, -1, -1, -1],
            "loss_changes": [
              2.1445727, 7.8376514e-1, 1.3878703e-1, 0, 0, 2.0352077e-1, 0, 0, 0
            ],
            "parents": [2147483647, 0, 0, 1, 1, 2, 2, 5, 5],
            "right_children": [2, 4, 6, -1, -1, 8, -1, -1, -1],
            "split_conditions": [
              1.6500001, 4.95, 3.15, -4.573041e-1, 1.7378055e-1, 6.6,
              1.0605521e-1, 5.942076e-1, 1.1606164e-1
            ],
            "split_indices": [3, 2, 1, 0, 0, 0, 0, 0, 0],
            "split_type": [0, 0, 0, 0, 0, 0, 0, 0, 0],
            "sum_hessian": [
              1.5873205e1, 8.533001, 7.3402042, 6.462906, 2.0700953, 5.2454405,
              2.094764, 3.399112, 1.8463284
            ],
            "tree_param": {
              "num_deleted": "0",
              "num_feature": "4",
              "num_nodes": "9",
              "size_leaf_vector": "0"
            }
          },
          {
            "base_weights": [-6.1356563e-2, 3.6984143e-1, -3.966872e-1],
            "categories": [],
            "categories_nodes": [],
            "categories_segments": [],
            "categories_sizes": [],
            "default_left": [1, 0, 0],
            "id": 9,
            "left_children": [1, -1, -1],
            "loss_changes": [1.1379793, 0, 0],
            "parents": [2147483647, 0, 0],
            "right_children": [2, -1, -1],
            "split_conditions": [2.45, 3.6984143e-1, -3.966872e-1],
            "split_indices": [2, 0, 0],
            "split_type": [0, 0, 0],
            "sum_hessian": [5.8555307, 2.5165768, 3.3389542],
            "tree_param": {
              "num_deleted": "0",
              "num_feature": "4",
              "num_nodes": "3",
              "size_leaf_vector": "0"
            }
          },
          {
            "base_weights": [
              9.521235e-3, 1.150553e-1, -3.3393857e-1, -3.157492e-1,
              2.8240198e-1, -8.756098e-2, 3.6904004e-1
            ],
            "categories": [],
            "categories_nodes": [],
            "categories_segments": [],
            "categories_sizes": [],
            "default_left": [1, 1, 0, 0, 1, 0, 0],
            "id": 10,
            "left_children": [1, 3, -1, -1, 5, -1, -1],
            "loss_changes": [
              4.187291e-1, 7.2141564e-1, 0, 0, 2.516873e-1, 0, 0
            ],
            "parents": [2147483647, 0, 0, 1, 1, 4, 4],
            "right_children": [2, 4, -1, -1, 6, -1, -1],
            "split_conditions": [
              5.1499996, 5.3500004, -3.3393857e-1, -3.157492e-1, 2.55,
              -8.756098e-2, 3.6904004e-1
            ],
            "split_indices": [2, 0, 0, 0, 1, 0, 0],
            "split_type": [0, 0, 0, 0, 0, 0, 0],
            "sum_hessian": [
              9.4922, 7.769802, 1.7223976, 1.9256804, 5.8441215, 1.1068754,
              4.737246
            ],
            "tree_param": {
              "num_deleted": "0",
              "num_feature": "4",
              "num_nodes": "7",
              "size_leaf_vector": "0"
            }
          },
          {
            "base_weights": [
              3.0065395e-2, -1.4164095e-1, 3.9306653e-1, 3.3172745e-1,
              -3.1450692e-1, -4.3981212e-1, 2.9362984e-2
            ],
            "categories": [],
            "categories_nodes": [],
            "categories_segments": [],
            "categories_sizes": [],
            "default_left": [1, 1, 0, 0, 1, 0, 0],
            "id": 11,
            "left_children": [1, 3, -1, -1, 5, -1, -1],
            "loss_changes": [7.205989e-1, 7.571069e-1, 0, 0, 2.868166e-1, 0, 0],
            "parents": [2147483647, 0, 0, 1, 1, 4, 4],
            "right_children": [2, 4, -1, -1, 6, -1, -1],
            "split_conditions": [
              5.1499996, 2.55, 3.9306653e-1, 3.3172745e-1, 1.75, -4.3981212e-1,
              2.9362984e-2
            ],
            "split_indices": [2, 1, 0, 0, 3, 0, 0],
            "split_type": [0, 0, 0, 0, 0, 0, 0],
            "sum_hessian": [
              9.667879, 6.9772944, 2.690585, 1.6205813, 5.356713, 3.7215743,
              1.6351386
            ],
            "tree_param": {
              "num_deleted": "0",
              "num_feature": "4",
              "num_nodes": "7",
              "size_leaf_vector": "0"
            }
          },
          {
            "base_weights": [-6.5338746e-2, 2.9422024e-1, -3.350149e-1],
            "categories": [],
            "categories_nodes": [],
            "categories_segments": [],
            "categories_sizes": [],
            "default_left": [1, 0, 0],
            "id": 12,
            "left_children": [1, -1, -1],
            "loss_changes": [5.1399887e-1, 0, 0],
            "parents": [2147483647, 0, 0],
            "right_children": [2, -1, -1],
            "split_conditions": [2.45, 2.9422024e-1, -3.350149e-1],
            "split_indices": [2, 0, 0],
            "split_type": [0, 0, 0],
            "sum_hessian": [3.2843597, 1.3685971, 1.9157625],
            "tree_param": {
              "num_deleted": "0",
              "num_feature": "4",
              "num_nodes": "3",
              "size_leaf_vector": "0"
            }
          },
          {
            "base_weights": [
              -2.184226e-2, 5.332405e-2, -1.6676064e-1, -1.8549764e-1,
              1.7299879e-1, 3.602812e-1, -3.408133e-4
            ],
            "categories": [],
            "categories_nodes": [],
            "categories_segments": [],
            "categories_sizes": [],
            "default_left": [1, 1, 0, 0, 1, 0, 0],
            "id": 13,
            "left_children": [1, 3, -1, -1, 5, -1, -1],
            "loss_changes": [
              1.0337349e-1, 2.169801e-1, 0, 0, 1.5682085e-1, 0, 0
            ],
            "parents": [2147483647, 0, 0, 1, 1, 4, 4],
            "right_children": [2, 4, -1, -1, 6, -1, -1],
            "split_conditions": [
              5.05, 5.45, -1.6676064e-1, -1.8549764e-1, 5.95, 3.602812e-1,
              -3.408133e-4
            ],
            "split_indices": [2, 0, 0, 0, 0, 0, 0],
            "split_type": [0, 0, 0, 0, 0, 0, 0],
            "sum_hessian": [
              7.6735806, 5.468973, 2.2046077, 1.6420667, 3.8269064, 1.3210864,
              2.50582
            ],
            "tree_param": {
              "num_deleted": "0",
              "num_feature": "4",
              "num_nodes": "7",
              "size_leaf_vector": "0"
            }
          },
          {
            "base_weights": [
              5.544203e-2, -2.9236013e-1, 1.6291377e-1, 2.4724907e-1,
              -1.6195118e-1, 3.1345344e-1, -2.8543824e-2
            ],
            "categories": [],
            "categories_nodes": [],
            "categories_segments": [],
            "categories_sizes": [],
            "default_left": [1, 0, 1, 1, 0, 0, 0],
            "id": 14,
            "left_children": [1, -1, 3, 5, -1, -1, -1],
            "loss_changes": [
              3.6408868e-1, 0, 2.3483564e-1, 1.19235456e-1, 0, 0, 0
            ],
            "parents": [2147483647, 0, 0, 2, 2, 3, 3],
            "right_children": [2, -1, 4, 6, -1, -1, -1],
            "split_conditions": [
              4.45, -2.9236013e-1, 3.15, 6.55, -1.6195118e-1, 3.1345344e-1,
              -2.8543824e-2
            ],
            "split_indices": [2, 0, 1, 0, 0, 0, 0],
            "split_type": [0, 0, 0, 0, 0, 0, 0],
            "sum_hessian": [
              7.4662504, 1.3563758, 6.1098747, 5.0403194, 1.069555, 3.954487,
              1.0858324
            ],
            "tree_param": {
              "num_deleted": "0",
              "num_feature": "4",
              "num_nodes": "7",
              "size_leaf_vector": "0"
            }
          },
          {
            "base_weights": [-6.7798674e-2, 1.7861576e-1, -2.695428e-1],
            "categories": [],
            "categories_nodes": [],
            "categories_segments": [],
            "categories_sizes": [],
            "default_left": [1, 0, 0],
            "id": 15,
            "left_children": [1, -1, -1],
            "loss_changes": [2.0514086e-1, 0, 0],
            "parents": [2147483647, 0, 0],
            "right_children": [2, -1, -1],
            "split_conditions": [1.1500001, 1.7861576e-1, -2.695428e-1],
            "split_indices": [3, 0, 0],
            "split_type": [0, 0, 0],
            "sum_hessian": [2.1580734, 1.0230911, 1.1349825],
            "tree_param": {
              "num_deleted": "0",
              "num_feature": "4",
              "num_nodes": "3",
              "size_leaf_vector": "0"
            }
          },
          {
            "base_weights": [
              2.8750524e-2, 1.07365355e-1, -1.2305733e-1, -3.1291842e-2,
              2.915884e-1, 1.2894468e-1, -2.195581e-1
            ],
            "categories": [],
            "categories_nodes": [],
            "categories_segments": [],
            "categories_sizes": [],
            "default_left": [1, 1, 0, 1, 0, 0, 0],
            "id": 16,
            "left_children": [1, 3, -1, 5, -1, -1, -1],
            "loss_changes": [
              1.0270264e-1, 1.4895862e-1, 0, 1.4977883e-1, 0, 0, 0
            ],
            "parents": [2147483647, 0, 0, 1, 1, 3, 3],
            "right_children": [2, 4, -1, 6, -1, -1, -1],
            "split_conditions": [
              1.75, 1.55, -1.2305733e-1, 4.8, 2.915884e-1, 1.2894468e-1,
              -2.195581e-1
            ],
            "split_indices": [3, 3, 0, 2, 0, 0, 0],
            "split_type": [0, 0, 0, 0, 0, 0, 0],
            "sum_hessian": [
              6.49857, 4.4742837, 2.0242863, 3.026501, 1.4477828, 1.8051782,
              1.2213228
            ],
            "tree_param": {
              "num_deleted": "0",
              "num_feature": "4",
              "num_nodes": "7",
              "size_leaf_vector": "0"
            }
          },
          {
            "base_weights": [
              -2.0189254e-4, -9.4656095e-2, 2.7364165e-1, 5.0045606e-2,
              -2.5493607e-1, 1.3296719e-1, -9.443451e-2
            ],
            "categories": [],
            "categories_nodes": [],
            "categories_segments": [],
            "categories_sizes": [],
            "default_left": [1, 1, 0, 1, 0, 0, 0],
            "id": 17,
            "left_children": [1, 3, -1, 5, -1, -1, -1],
            "loss_changes": [
              2.15098e-1, 1.5612814e-1, 0, 6.1492436e-2, 0, 0, 0
            ],
            "parents": [2147483647, 0, 0, 1, 1, 3, 3],
            "right_children": [2, 4, -1, 6, -1, -1, -1],
            "split_conditions": [
              5.1499996, 2.85, 2.7364165e-1, 5.05, -2.5493607e-1, 1.3296719e-1,
              -9.443451e-2
            ],
            "split_indices": [2, 1, 0, 2, 0, 0, 0],
            "split_type": [0, 0, 0, 0, 0, 0, 0],
            "sum_hessian": [
              6.3145647, 5.1816506, 1.1329143, 3.084609, 2.0970416, 2.0104403,
              1.0741686
            ],
            "tree_param": {
              "num_deleted": "0",
              "num_feature": "4",
              "num_nodes": "7",
              "size_leaf_vector": "0"
            }
          },
          {
            "base_weights": [-3.9545756e-2],
            "categories": [],
            "categories_nodes": [],
            "categories_segments": [],
            "categories_sizes": [],
            "default_left": [0],
            "id": 18,
            "left_children": [-1],
            "loss_changes": [0],
            "parents": [2147483647],
            "right_children": [-1],
            "split_conditions": [-3.9545756e-2],
            "split_indices": [0],
            "split_type": [0],
            "sum_hessian": [1.6863272],
            "tree_param": {
              "num_deleted": "0",
              "num_feature": "4",
              "num_nodes": "1",
              "size_leaf_vector": "0"
            }
          },
          {
            "base_weights": [
              1.6040761e-2, 1.3816768e-1, -8.033348e-2, -3.1016255e-2,
              2.311478e-1, 8.242984e-2, -3.122384e-1, 3.6687427e-3, 1.3117309e-1
            ],
            "categories": [],
            "categories_nodes": [],
            "categories_segments": [],
            "categories_sizes": [],
            "default_left": [1, 1, 1, 0, 0, 1, 0, 0, 0],
            "id": 19,
            "left_children": [1, 3, 5, -1, -1, 7, -1, -1, -1],
            "loss_changes": [
              9.326101e-2, 6.1387107e-2, 1.9687796e-1, 0, 0, 1.2783984e-2, 0, 0,
              0
            ],
            "parents": [2147483647, 0, 0, 1, 1, 2, 2, 5, 5],
            "right_children": [2, 4, 6, -1, -1, 8, -1, -1, -1],
            "split_conditions": [
              2.75, 5.9, 5.05, -3.1016255e-2, 2.311478e-1, 3.05, -3.122384e-1,
              3.6687427e-3, 1.3117309e-1
            ],
            "split_indices": [1, 0, 2, 0, 0, 1, 0, 0, 0],
            "split_type": [0, 0, 0, 0, 0, 0, 0, 0, 0],
            "sum_hessian": [
              5.9806542, 2.4466121, 3.5340421, 1.1040803, 1.3425319, 2.45532,
              1.0787221, 1.3496972, 1.1056228
            ],
            "tree_param": {
              "num_deleted": "0",
              "num_feature": "4",
              "num_nodes": "9",
              "size_leaf_vector": "0"
            }
          },
          {
            "base_weights": [
              -8.6874777e-4, -1.5506354e-1, 1.5097103e-1, -3.007897e-1,
              4.3425523e-2, 3.7212513e-2, 1.9221555e-1
            ],
            "categories": [],
            "categories_nodes": [],
            "categories_segments": [],
            "categories_sizes": [],
            "default_left": [1, 1, 1, 0, 0, 0, 0],
            "id": 20,
            "left_children": [1, 3, 5, -1, -1, -1, -1],
            "loss_changes": [
              1.7814295e-1, 1.2217653e-1, 1.0847941e-2, 0, 0, 0, 0
            ],
            "parents": [2147483647, 0, 0, 1, 1, 2, 2],
            "right_children": [2, 4, 6, -1, -1, -1, -1],
            "split_conditions": [
              1.6500001, 4.95, 5.95, -3.007897e-1, 4.3425523e-2, 3.7212513e-2,
              1.9221555e-1
            ],
            "split_indices": [3, 2, 0, 0, 0, 0, 0],
            "split_type": [0, 0, 0, 0, 0, 0, 0],
            "sum_hessian": [
              5.608871, 2.7723207, 2.8365505, 1.3014377, 1.470883, 1.2609378,
              1.5756127
            ],
            "tree_param": {
              "num_deleted": "0",
              "num_feature": "4",
              "num_nodes": "7",
              "size_leaf_vector": "0"
            }
          },
          {
            "base_weights": [-1.4122893e-2],
            "categories": [],
            "categories_nodes": [],
            "categories_segments": [],
            "categories_sizes": [],
            "default_left": [0],
            "id": 21,
            "left_children": [-1],
            "loss_changes": [0],
            "parents": [2147483647],
            "right_children": [-1],
            "split_conditions": [-1.4122893e-2],
            "split_indices": [0],
            "split_type": [0],
            "sum_hessian": [1.6297096],
            "tree_param": {
              "num_deleted": "0",
              "num_feature": "4",
              "num_nodes": "1",
              "size_leaf_vector": "0"
            }
          },
          {
            "base_weights": [
              8.575994e-3, -1.3701682e-1, 9.3813695e-2, -1.0429479e-1,
              2.0297027e-1, 4.77575e-2, 2.5119817e-1
            ],
            "categories": [],
            "categories_nodes": [],
            "categories_segments": [],
            "categories_sizes": [],
            "default_left": [1, 0, 1, 0, 1, 0, 0],
            "id": 22,
            "left_children": [1, -1, 3, -1, 5, -1, -1],
            "loss_changes": [
              9.3059264e-2, 0, 1.2215653e-1, 0, 1.3083085e-2, 0, 0
            ],
            "parents": [2147483647, 0, 0, 2, 2, 4, 4],
            "right_children": [2, -1, 4, -1, 6, -1, -1],
            "split_conditions": [
              5.8500004, -1.3701682e-1, 1.55, -1.0429479e-1, 4.95, 4.77575e-2,
              2.5119817e-1
            ],
            "split_indices": [0, 0, 3, 0, 2, 0, 0],
            "split_type": [0, 0, 0, 0, 0, 0, 0],
            "sum_hessian": [
              5.4629517, 1.7929621, 3.6699898, 1.3195944, 2.3503954, 1.0289983,
              1.3213971
            ],
            "tree_param": {
              "num_deleted": "0",
              "num_feature": "4",
              "num_nodes": "7",
              "size_leaf_vector": "0"
            }
          },
          {
            "base_weights": [
              -3.0850654e-3, -1.1589422e-1, 1.0511364e-1, 2.8893393e-2,
              1.3137853e-1
            ],
            "categories": [],
            "categories_nodes": [],
            "categories_segments": [],
            "categories_sizes": [],
            "default_left": [1, 0, 1, 0, 0],
            "id": 23,
            "left_children": [1, -1, 3, -1, -1],
            "loss_changes": [8.453429e-2, 0, 3.3109598e-3, 0, 0],
            "parents": [2147483647, 0, 0, 2, 2],
            "right_children": [2, -1, 4, -1, -1],
            "split_conditions": [
              1.6500001, -1.1589422e-1, 5.95, 2.8893393e-2, 1.3137853e-1
            ],
            "split_indices": [3, 0, 0, 0, 0],
            "split_type": [0, 0, 0, 0, 0],
            "sum_hessian": [
              4.9276896, 2.3776262, 2.5500634, 1.191738, 1.3583252
            ],
            "tree_param": {
              "num_deleted": "0",
              "num_feature": "4",
              "num_nodes": "5",
              "size_leaf_vector": "0"
            }
          },
          {
            "base_weights": [-3.2260086e-2],
            "categories": [],
            "categories_nodes": [],
            "categories_segments": [],
            "categories_sizes": [],
            "default_left": [0],
            "id": 24,
            "left_children": [-1],
            "loss_changes": [0],
            "parents": [2147483647],
            "right_children": [-1],
            "split_conditions": [-3.2260086e-2],
            "split_indices": [0],
            "split_type": [0],
            "sum_hessian": [1.5480944],
            "tree_param": {
              "num_deleted": "0",
              "num_feature": "4",
              "num_nodes": "1",
              "size_leaf_vector": "0"
            }
          },
          {
            "base_weights": [
              1.5914679e-3, -1.30172e-1, 5.666732e-2, 1.5249379e-1,
              -4.6685725e-2, 4.7181424e-2, -1.104292e-1
            ],
            "categories": [],
            "categories_nodes": [],
            "categories_segments": [],
            "categories_sizes": [],
            "default_left": [1, 0, 1, 0, 1, 0, 0],
            "id": 25,
            "left_children": [1, -1, 3, -1, 5, -1, -1],
            "loss_changes": [
              5.3811662e-2, 0, 5.8711056e-2, 0, 2.4786703e-2, 0, 0
            ],
            "parents": [2147483647, 0, 0, 2, 2, 4, 4],
            "right_children": [2, -1, 4, -1, 6, -1, -1],
            "split_conditions": [
              5.45, -1.30172e-1, 4.95, 1.5249379e-1, 2.75, 4.7181424e-2,
              -1.104292e-1
            ],
            "split_indices": [0, 0, 2, 0, 1, 0, 0],
            "split_type": [0, 0, 0, 0, 0, 0, 0],
            "sum_hessian": [
              5.398685, 1.1894768, 4.209208, 1.9374169, 2.2717912, 1.0238771,
              1.2479142
            ],
            "tree_param": {
              "num_deleted": "0",
              "num_feature": "4",
              "num_nodes": "7",
              "size_leaf_vector": "0"
            }
          },
          {
            "base_weights": [
              1.2294135e-2, -7.963647e-2, 9.851148e-2, -9.717965e-2,
              -2.1513987e-2, 1.3762319e-2, 1.3465205e-1
            ],
            "categories": [],
            "categories_nodes": [],
            "categories_segments": [],
            "categories_sizes": [],
            "default_left": [1, 1, 1, 0, 0, 0, 0],
            "id": 26,
            "left_children": [1, 3, 5, -1, -1, -1, -1],
            "loss_changes": [
              5.4275356e-2, 1.3638865e-3, 8.774884e-3, 0, 0, 0, 0
            ],
            "parents": [2147483647, 0, 0, 1, 1, 2, 2],
            "right_children": [2, 4, 6, -1, -1, -1, -1],
            "split_conditions": [
              1.6500001, 5.05, 5.95, -9.717965e-2, -2.1513987e-2, 1.3762319e-2,
              1.3465205e-1
            ],
            "split_indices": [3, 2, 0, 0, 0, 0, 0],
            "split_type": [0, 0, 0, 0, 0, 0, 0],
            "sum_hessian": [
              4.857958, 2.3880215, 2.4699366, 1.3181746, 1.0698469, 1.1511961,
              1.3187404
            ],
            "tree_param": {
              "num_deleted": "0",
              "num_feature": "4",
              "num_nodes": "7",
              "size_leaf_vector": "0"
            }
          },
          {
            "base_weights": [-2.6572132e-2],
            "categories": [],
            "categories_nodes": [],
            "categories_segments": [],
            "categories_sizes": [],
            "default_left": [0],
            "id": 27,
            "left_children": [-1],
            "loss_changes": [0],
            "parents": [2147483647],
            "right_children": [-1],
            "split_conditions": [-2.6572132e-2],
            "split_indices": [0],
            "split_type": [0],
            "sum_hessian": [1.4586027],
            "tree_param": {
              "num_deleted": "0",
              "num_feature": "4",
              "num_nodes": "1",
              "size_leaf_vector": "0"
            }
          },
          {
            "base_weights": [
              -1.7479064e-3, -1.00655556e-1, 5.5797853e-2, -1.3851848e-1,
              1.7075546e-1, 3.284249e-1, -4.1724335e-2
            ],
            "categories": [],
            "categories_nodes": [],
            "categories_segments": [],
            "categories_sizes": [],
            "default_left": [1, 0, 1, 0, 1, 0, 0],
            "id": 28,
            "left_children": [1, -1, 3, -1, 5, -1, -1],
            "loss_changes": [
              4.0842406e-2, 0, 1.2542444e-1, 0, 1.24606386e-1, 0, 0
            ],
            "parents": [2147483647, 0, 0, 2, 2, 4, 4],
            "right_children": [2, -1, 4, -1, 6, -1, -1],
            "split_conditions": [
              5.8500004, -1.00655556e-1, 1.55, -1.3851848e-1, 1.75, 3.284249e-1,
              -4.1724335e-2
            ],
            "split_indices": [0, 0, 3, 0, 3, 0, 0],
            "split_type": [0, 0, 0, 0, 0, 0, 0],
            "sum_hessian": [
              5.189003, 1.6330442, 3.5559587, 1.2455742, 2.3103845, 1.0130101,
              1.2973744
            ],
            "tree_param": {
              "num_deleted": "0",
              "num_feature": "4",
              "num_nodes": "7",
              "size_leaf_vector": "0"
            }
          },
          {
            "base_weights": [
              1.3451063e-2, 1.4607891e-1, -6.262538e-2, -1.9773814e-1,
              1.0434615e-1
            ],
            "categories": [],
            "categories_nodes": [],
            "categories_segments": [],
            "categories_sizes": [],
            "default_left": [1, 0, 1, 0, 0],
            "id": 29,
            "left_children": [1, -1, 3, -1, -1],
            "loss_changes": [6.626711e-2, 0, 1.17582686e-1, 0, 0],
            "parents": [2147483647, 0, 0, 2, 2],
            "right_children": [2, -1, 4, -1, -1],
            "split_conditions": [
              2.65, 1.4607891e-1, 1.75, -1.9773814e-1, 1.0434615e-1
            ],
            "split_indices": [1, 0, 3, 0, 0],
            "split_type": [0, 0, 0, 0, 0],
            "sum_hessian": [
              4.6610184, 1.3636099, 3.2974086, 1.7207342, 1.5766745
            ],
            "tree_param": {
              "num_deleted": "0",
              "num_feature": "4",
              "num_nodes": "5",
              "size_leaf_vector": "0"
            }
          },
          {
            "base_weights": [-3.7486456e-2],
            "categories": [],
            "categories_nodes": [],
            "categories_segments": [],
            "categories_sizes": [],
            "default_left": [0],
            "id": 30,
            "left_children": [-1],
            "loss_changes": [0],
            "parents": [2147483647],
            "right_children": [-1],
            "split_conditions": [-3.7486456e-2],
            "split_indices": [0],
            "split_type": [0],
            "sum_hessian": [1.3974715],
            "tree_param": {
              "num_deleted": "0",
              "num_feature": "4",
              "num_nodes": "1",
              "size_leaf_vector": "0"
            }
          },
          {
            "base_weights": [
              5.0989045e-3, 7.361188e-2, -8.638696e-2, -6.8643905e-2,
              1.539697e-1
            ],
            "categories": [],
            "categories_nodes": [],
            "categories_segments": [],
            "categories_sizes": [],
            "default_left": [1, 1, 0, 0, 0],
            "id": 31,
            "left_children": [1, 3, -1, -1, -1],
            "loss_changes": [4.3744028e-2, 5.5726804e-2, 0, 0, 0],
            "parents": [2147483647, 0, 0, 1, 1],
            "right_children": [2, 4, -1, -1, -1],
            "split_conditions": [
              4.95, 5.45, -8.638696e-2, -6.8643905e-2, 1.539697e-1
            ],
            "split_indices": [2, 0, 0, 0, 0],
            "split_type": [0, 0, 0, 0, 0],
            "sum_hessian": [
              4.9644403, 2.9503345, 2.0141056, 1.1176155, 1.8327191
            ],
            "tree_param": {
              "num_deleted": "0",
              "num_feature": "4",
              "num_nodes": "5",
              "size_leaf_vector": "0"
            }
          },
          {
            "base_weights": [
              1.0995403e-2, -1.08101636e-1, 1.283727e-1, -1.6923593e-2,
              -1.518985e-1, 3.9799873e-2, 1.5135059e-1
            ],
            "categories": [],
            "categories_nodes": [],
            "categories_segments": [],
            "categories_sizes": [],
            "default_left": [1, 1, 1, 0, 0, 0, 0],
            "id": 32,
            "left_children": [1, 3, 5, -1, -1, -1, -1],
            "loss_changes": [
              8.947586e-2, 1.0316331e-2, 4.4978783e-4, 0, 0, 0, 0
            ],
            "parents": [2147483647, 0, 0, 1, 1, 2, 2],
            "right_children": [2, 4, 6, -1, -1, -1, -1],
            "split_conditions": [
              4.95, 2.85, 6.1499996, -1.6923593e-2, -1.518985e-1, 3.9799873e-2,
              1.5135059e-1
            ],
            "split_indices": [2, 1, 0, 0, 0, 0, 0],
            "split_type": [0, 0, 0, 0, 0, 0, 0],
            "sum_hessian": [
              4.407898, 2.2271457, 2.1807523, 1.1725323, 1.0546134, 1.0119777,
              1.1687745
            ],
            "tree_param": {
              "num_deleted": "0",
              "num_feature": "4",
              "num_nodes": "7",
              "size_leaf_vector": "0"
            }
          },
          {
            "base_weights": [-2.3485674e-2],
            "categories": [],
            "categories_nodes": [],
            "categories_segments": [],
            "categories_sizes": [],
            "default_left": [0],
            "id": 33,
            "left_children": [-1],
            "loss_changes": [0],
            "parents": [2147483647],
            "right_children": [-1],
            "split_conditions": [-2.3485674e-2],
            "split_indices": [0],
            "split_type": [0],
            "sum_hessian": [1.3326412],
            "tree_param": {
              "num_deleted": "0",
              "num_feature": "4",
              "num_nodes": "1",
              "size_leaf_vector": "0"
            }
          },
          {
            "base_weights": [
              1.6601469e-3, 9.276822e-2, -7.130174e-2, -1.7900449e-1,
              4.756836e-2
            ],
            "categories": [],
            "categories_nodes": [],
            "categories_segments": [],
            "categories_sizes": [],
            "default_left": [1, 0, 1, 0, 0],
            "id": 34,
            "left_children": [1, -1, 3, -1, -1],
            "loss_changes": [4.5262318e-2, 0, 5.708698e-2, 0, 0],
            "parents": [2147483647, 0, 0, 2, 2],
            "right_children": [2, -1, 4, -1, -1],
            "split_conditions": [
              2.75, 9.276822e-2, 1.6500001, -1.7900449e-1, 4.756836e-2
            ],
            "split_indices": [1, 0, 3, 0, 0],
            "split_type": [0, 0, 0, 0, 0],
            "sum_hessian": [
              4.8139544, 2.0200458, 2.7939084, 1.2003987, 1.5935096
            ],
            "tree_param": {
              "num_deleted": "0",
              "num_feature": "4",
              "num_nodes": "5",
              "size_leaf_vector": "0"
            }
          },
          {
            "base_weights": [
              8.608338e-3, -1.1107002e-1, 8.531276e-2, -7.710176e-2,
              1.8099032e-1
            ],
            "categories": [],
            "categories_nodes": [],
            "categories_segments": [],
            "categories_sizes": [],
            "default_left": [1, 0, 1, 0, 0],
            "id": 35,
            "left_children": [1, -1, 3, -1, -1],
            "loss_changes": [5.7603963e-2, 0, 7.239255e-2, 0, 0],
            "parents": [2147483647, 0, 0, 2, 2],
            "right_children": [2, -1, 4, -1, -1],
            "split_conditions": [
              5.95, -1.1107002e-1, 2.75, -7.710176e-2, 1.8099032e-1
            ],
            "split_indices": [0, 0, 1, 0, 0],
            "split_type": [0, 0, 0, 0, 0],
            "sum_hessian": [
              4.242811, 1.482191, 2.7606204, 1.0953656, 1.6652547
            ],
            "tree_param": {
              "num_deleted": "0",
              "num_feature": "4",
              "num_nodes": "5",
              "size_leaf_vector": "0"
            }
          },
          {
            "base_weights": [-3.4725137e-2],
            "categories": [],
            "categories_nodes": [],
            "categories_segments": [],
            "categories_sizes": [],
            "default_left": [0],
            "id": 36,
            "left_children": [-1],
            "loss_changes": [0],
            "parents": [2147483647],
            "right_children": [-1],
            "split_conditions": [-3.4725137e-2],
            "split_indices": [0],
            "split_type": [0],
            "sum_hessian": [1.2206798],
            "tree_param": {
              "num_deleted": "0",
              "num_feature": "4",
              "num_nodes": "1",
              "size_leaf_vector": "0"
            }
          },
          {
            "base_weights": [
              -1.6989723e-3, -8.4654704e-2, 4.870526e-2, -8.746499e-2,
              1.2574266e-1
            ],
            "categories": [],
            "categories_nodes": [],
            "categories_segments": [],
            "categories_sizes": [],
            "default_left": [1, 0, 1, 0, 0],
            "id": 37,
            "left_children": [1, -1, 3, -1, -1],
            "loss_changes": [2.762331e-2, 0, 5.4331455e-2, 0, 0],
            "parents": [2147483647, 0, 0, 2, 2],
            "right_children": [2, -1, 4, -1, -1],
            "split_conditions": [
              5.8500004, -8.4654704e-2, 1.55, -8.746499e-2, 1.2574266e-1
            ],
            "split_indices": [0, 0, 3, 0, 0],
            "split_type": [0, 0, 0, 0, 0],
            "sum_hessian": [
              4.620278, 1.4894358, 3.1308422, 1.0823455, 2.0484967
            ],
            "tree_param": {
              "num_deleted": "0",
              "num_feature": "4",
              "num_nodes": "5",
              "size_leaf_vector": "0"
            }
          },
          {
            "base_weights": [
              1.699571e-2, 9.3940966e-2, -8.349912e-2, 1.18820064e-1,
              2.1545364e-2
            ],
            "categories": [],
            "categories_nodes": [],
            "categories_segments": [],
            "categories_sizes": [],
            "default_left": [1, 1, 0, 0, 0],
            "id": 38,
            "left_children": [1, 3, -1, -1, -1],
            "loss_changes": [4.7273654e-2, 3.4891404e-3, 0, 0, 0],
            "parents": [2147483647, 0, 0, 1, 1],
            "right_children": [2, 4, -1, -1, -1],
            "split_conditions": [
              2.85, 2.65, -8.349912e-2, 1.18820064e-1, 2.1545364e-2
            ],
            "split_indices": [1, 1, 0, 0, 0],
            "split_type": [0, 0, 0, 0, 0],
            "sum_hessian": [
              4.0991473, 2.3585253, 1.7406218, 1.278055, 1.0804704
            ],
            "tree_param": {
              "num_deleted": "0",
              "num_feature": "4",
              "num_nodes": "5",
              "size_leaf_vector": "0"
            }
          },
          {
            "base_weights": [-4.06491e-2],
            "categories": [],
            "categories_nodes": [],
            "categories_segments": [],
            "categories_sizes": [],
            "default_left": [0],
            "id": 39,
            "left_children": [-1],
            "loss_changes": [0],
            "parents": [2147483647],
            "right_children": [-1],
            "split_conditions": [-4.06491e-2],
            "split_indices": [0],
            "split_type": [0],
            "sum_hessian": [1.1989436],
            "tree_param": {
              "num_deleted": "0",
              "num_feature": "4",
              "num_nodes": "1",
              "size_leaf_vector": "0"
            }
          },
          {
            "base_weights": [
              -4.7108373e-3, 6.292173e-2, -1.2582292e-1, -4.7055718e-2,
              1.1288523e-1
            ],
            "categories": [],
            "categories_nodes": [],
            "categories_segments": [],
            "categories_sizes": [],
            "default_left": [1, 1, 0, 0, 0],
            "id": 40,
            "left_children": [1, 3, -1, -1, -1],
            "loss_changes": [5.3921573e-2, 2.877775e-2, 0, 0, 0],
            "parents": [2147483647, 0, 0, 1, 1],
            "right_children": [2, 4, -1, -1, -1],
            "split_conditions": [
              1.75, 5.45, -1.2582292e-1, -4.7055718e-2, 1.1288523e-1
            ],
            "split_indices": [3, 0, 0, 0, 0],
            "split_type": [0, 0, 0, 0, 0],
            "sum_hessian": [4.616396, 3.270512, 1.345884, 1.0398463, 2.230666],
            "tree_param": {
              "num_deleted": "0",
              "num_feature": "4",
              "num_nodes": "5",
              "size_leaf_vector": "0"
            }
          },
          {
            "base_weights": [
              2.273429e-2, -7.292588e-2, 1.5494978e-1, 5.6109697e-2,
              -1.6376571e-1
            ],
            "categories": [],
            "categories_nodes": [],
            "categories_segments": [],
            "categories_sizes": [],
            "default_left": [1, 1, 0, 0, 0],
            "id": 41,
            "left_children": [1, 3, -1, -1, -1],
            "loss_changes": [7.574704e-2, 5.181381e-2, 0, 0, 0],
            "parents": [2147483647, 0, 0, 1, 1],
            "right_children": [2, 4, -1, -1, -1],
            "split_conditions": [
              1.75, 2.65, 1.5494978e-1, 5.6109697e-2, -1.6376571e-1
            ],
            "split_indices": [3, 1, 0, 0, 0],
            "split_type": [0, 0, 0, 0, 0],
            "sum_hessian": [
              4.095544, 2.636455, 1.4590888, 1.2471848, 1.3892703
            ],
            "tree_param": {
              "num_deleted": "0",
              "num_feature": "4",
              "num_nodes": "5",
              "size_leaf_vector": "0"
            }
          },
          {
            "base_weights": [-2.6149869e-2],
            "categories": [],
            "categories_nodes": [],
            "categories_segments": [],
            "categories_sizes": [],
            "default_left": [0],
            "id": 42,
            "left_children": [-1],
            "loss_changes": [0],
            "parents": [2147483647],
            "right_children": [-1],
            "split_conditions": [-2.6149869e-2],
            "split_indices": [0],
            "split_type": [0],
            "sum_hessian": [1.1514257],
            "tree_param": {
              "num_deleted": "0",
              "num_feature": "4",
              "num_nodes": "1",
              "size_leaf_vector": "0"
            }
          },
          {
            "base_weights": [
              -6.0747047e-3, 4.8911236e-2, -7.954854e-2, 1.3439351e-1,
              -6.88262e-2
            ],
            "categories": [],
            "categories_nodes": [],
            "categories_segments": [],
            "categories_sizes": [],
            "default_left": [1, 1, 0, 0, 0],
            "id": 43,
            "left_children": [1, 3, -1, -1, -1],
            "loss_changes": [2.5717195e-2, 4.6581708e-2, 0, 0, 0],
            "parents": [2147483647, 0, 0, 1, 1],
            "right_children": [2, 4, -1, -1, -1],
            "split_conditions": [
              4.95, 1.6500001, -7.954854e-2, 1.3439351e-1, -6.88262e-2
            ],
            "split_indices": [2, 3, 0, 0, 0],
            "split_type": [0, 0, 0, 0, 0],
            "sum_hessian": [
              4.4025316, 2.7092798, 1.6932518, 1.4876883, 1.2215915
            ],
            "tree_param": {
              "num_deleted": "0",
              "num_feature": "4",
              "num_nodes": "5",
              "size_leaf_vector": "0"
            }
          },
          {
            "base_weights": [
              1.8314011e-2, -1.1577807e-1, 1.0680715e-1, 1.3321716e-1,
              3.2854494e-2
            ],
            "categories": [],
            "categories_nodes": [],
            "categories_segments": [],
            "categories_sizes": [],
            "default_left": [1, 0, 1, 0, 0],
            "id": 44,
            "left_children": [1, -1, 3, -1, -1],
            "loss_changes": [7.008226e-2, 0, 2.3620091e-3, 0, 0],
            "parents": [2147483647, 0, 0, 2, 2],
            "right_children": [2, -1, 4, -1, -1],
            "split_conditions": [
              5.95, -1.1577807e-1, 6.25, 1.3321716e-1, 3.2854494e-2
            ],
            "split_indices": [0, 0, 0, 0, 0],
            "split_type": [0, 0, 0, 0, 0],
            "sum_hessian": [
              3.8639152, 1.4135936, 2.4503217, 1.2150265, 1.2352952
            ],
            "tree_param": {
              "num_deleted": "0",
              "num_feature": "4",
              "num_nodes": "5",
              "size_leaf_vector": "0"
            }
          },
          {
            "base_weights": [2.2317837e-3],
            "categories": [],
            "categories_nodes": [],
            "categories_segments": [],
            "categories_sizes": [],
            "default_left": [0],
            "id": 45,
            "left_children": [-1],
            "loss_changes": [0],
            "parents": [2147483647],
            "right_children": [-1],
            "split_conditions": [2.2317837e-3],
            "split_indices": [0],
            "split_type": [0],
            "sum_hessian": [1.1628752],
            "tree_param": {
              "num_deleted": "0",
              "num_feature": "4",
              "num_nodes": "1",
              "size_leaf_vector": "0"
            }
          },
          {
            "base_weights": [
              -1.935111e-3, -8.810092e-2, 5.301063e-2, 1.20470345e-1,
              -2.5016097e-2
            ],
            "categories": [],
            "categories_nodes": [],
            "categories_segments": [],
            "categories_sizes": [],
            "default_left": [1, 0, 1, 0, 0],
            "id": 46,
            "left_children": [1, -1, 3, -1, -1],
            "loss_changes": [2.944894e-2, 0, 2.312165e-2, 0, 0],
            "parents": [2147483647, 0, 0, 2, 2],
            "right_children": [2, -1, 4, -1, -1],
            "split_conditions": [
              5.8500004, -8.810092e-2, 4.95, 1.20470345e-1, -2.5016097e-2
            ],
            "split_indices": [0, 0, 2, 0, 0],
            "split_type": [0, 0, 0, 0, 0],
            "sum_hessian": [
              4.2336984, 1.413552, 2.8201463, 1.2207541, 1.5993922
            ],
            "tree_param": {
              "num_deleted": "0",
              "num_feature": "4",
              "num_nodes": "5",
              "size_leaf_vector": "0"
            }
          },
          {
            "base_weights": [
              1.1384598e-3, -8.926925e-2, 6.4054094e-2, 8.252234e-2, 1.647296e-2
            ],
            "categories": [],
            "categories_nodes": [],
            "categories_segments": [],
            "categories_sizes": [],
            "default_left": [1, 0, 1, 0, 0],
            "id": 47,
            "left_children": [1, -1, 3, -1, -1],
            "loss_changes": [3.2211874e-2, 0, 1.5656892e-3, 0, 0],
            "parents": [2147483647, 0, 0, 2, 2],
            "right_children": [2, -1, 4, -1, -1],
            "split_conditions": [
              5.95, -8.926925e-2, 6.25, 8.252234e-2, 1.647296e-2
            ],
            "split_indices": [0, 0, 0, 0, 0],
            "split_type": [0, 0, 0, 0, 0],
            "sum_hessian": [3.6577954, 1.3290794, 2.328716, 1.148561, 1.180155],
            "tree_param": {
              "num_deleted": "0",
              "num_feature": "4",
              "num_nodes": "5",
              "size_leaf_vector": "0"
            }
          },
          {
            "base_weights": [-1.1707545e-2],
            "categories": [],
            "categories_nodes": [],
            "categories_segments": [],
            "categories_sizes": [],
            "default_left": [0],
            "id": 48,
            "left_children": [-1],
            "loss_changes": [0],
            "parents": [2147483647],
            "right_children": [-1],
            "split_conditions": [-1.1707545e-2],
            "split_indices": [0],
            "split_type": [0],
            "sum_hessian": [1.1217796],
            "tree_param": {
              "num_deleted": "0",
              "num_feature": "4",
              "num_nodes": "1",
              "size_leaf_vector": "0"
            }
          },
          {
            "base_weights": [
              5.8446184e-4, 7.901278e-2, -6.323406e-2, -1.6548091e-1,
              5.3547315e-2
            ],
            "categories": [],
            "categories_nodes": [],
            "categories_segments": [],
            "categories_sizes": [],
            "default_left": [1, 0, 1, 0, 0],
            "id": 49,
            "left_children": [1, -1, 3, -1, -1],
            "loss_changes": [3.0749653e-2, 0, 4.936769e-2, 0, 0],
            "parents": [2147483647, 0, 0, 2, 2],
            "right_children": [2, -1, 4, -1, -1],
            "split_conditions": [
              2.75, 7.901278e-2, 1.6500001, -1.6548091e-1, 5.3547315e-2
            ],
            "split_indices": [1, 0, 3, 0, 0],
            "split_type": [0, 0, 0, 0, 0],
            "sum_hessian": [
              4.1453404, 1.7529756, 2.392365, 1.0532163, 1.3391486
            ],
            "tree_param": {
              "num_deleted": "0",
              "num_feature": "4",
              "num_nodes": "5",
              "size_leaf_vector": "0"
            }
          },
          {
            "base_weights": [
              4.749601e-3, -5.402273e-2, 9.312518e-2, 6.0509205e-2,
              -1.3364175e-1
            ],
            "categories": [],
            "categories_nodes": [],
            "categories_segments": [],
            "categories_sizes": [],
            "default_left": [1, 1, 0, 0, 0],
            "id": 50,
            "left_children": [1, 3, -1, -1, -1],
            "loss_changes": [2.8907686e-2, 3.9033975e-2, 0, 0, 0],
            "parents": [2147483647, 0, 0, 1, 1],
            "right_children": [2, 4, -1, -1, -1],
            "split_conditions": [
              1.75, 2.65, 9.312518e-2, 6.0509205e-2, -1.3364175e-1
            ],
            "split_indices": [3, 1, 0, 0, 0],
            "split_type": [0, 0, 0, 0, 0],
            "sum_hessian": [
              3.5969644, 2.3937593, 1.2032052, 1.08008, 1.3136791
            ],
            "tree_param": {
              "num_deleted": "0",
              "num_feature": "4",
              "num_nodes": "5",
              "size_leaf_vector": "0"
            }
          },
          {
            "base_weights": [-2.6048088e-2],
            "categories": [],
            "categories_nodes": [],
            "categories_segments": [],
            "categories_sizes": [],
            "default_left": [0],
            "id": 51,
            "left_children": [-1],
            "loss_changes": [0],
            "parents": [2147483647],
            "right_children": [-1],
            "split_conditions": [-2.6048088e-2],
            "split_indices": [0],
            "split_type": [0],
            "sum_hessian": [1.0401843],
            "tree_param": {
              "num_deleted": "0",
              "num_feature": "4",
              "num_nodes": "1",
              "size_leaf_vector": "0"
            }
          },
          {
            "base_weights": [
              -3.2733302e-3, 5.8840197e-2, -5.309845e-2, -1.45483e-1,
              5.0667696e-2
            ],
            "categories": [],
            "categories_nodes": [],
            "categories_segments": [],
            "categories_sizes": [],
            "default_left": [1, 0, 1, 0, 0],
            "id": 52,
            "left_children": [1, -1, 3, -1, -1],
            "loss_changes": [1.8555593e-2, 0, 3.8933687e-2, 0, 0],
            "parents": [2147483647, 0, 0, 2, 2],
            "right_children": [2, -1, 4, -1, -1],
            "split_conditions": [
              2.75, 5.8840197e-2, 1.6500001, -1.45483e-1, 5.0667696e-2
            ],
            "split_indices": [1, 0, 3, 0, 0],
            "split_type": [0, 0, 0, 0, 0],
            "sum_hessian": [3.98617, 1.6937523, 2.2924178, 1.0000398, 1.292378],
            "tree_param": {
              "num_deleted": "0",
              "num_feature": "4",
              "num_nodes": "5",
              "size_leaf_vector": "0"
            }
          },
          {
            "base_weights": [1.548268e-2, -7.101265e-2, 7.220439e-2],
            "categories": [],
            "categories_nodes": [],
            "categories_segments": [],
            "categories_sizes": [],
            "default_left": [1, 0, 0],
            "id": 53,
            "left_children": [1, -1, -1],
            "loss_changes": [2.7139323e-2, 0, 0],
            "parents": [2147483647, 0, 0],
            "right_children": [2, -1, -1],
            "split_conditions": [5.95, -7.101265e-2, 7.220439e-2],
            "split_indices": [0, 0, 0],
            "split_type": [0, 0, 0],
            "sum_hessian": [3.4865806, 1.2810897, 2.205491],
            "tree_param": {
              "num_deleted": "0",
              "num_feature": "4",
              "num_nodes": "3",
              "size_leaf_vector": "0"
            }
          },
          {
            "base_weights": [0],
            "categories": [],
            "categories_nodes": [],
            "categories_segments": [],
            "categories_sizes": [],
            "default_left": [0],
            "id": 54,
            "left_children": [-1],
            "loss_changes": [0],
            "parents": [2147483647],
            "right_children": [-1],
            "split_conditions": [0],
            "split_indices": [0],
            "split_type": [0],
            "sum_hessian": [9.8014355e-1],
            "tree_param": {
              "num_deleted": "0",
              "num_feature": "4",
              "num_nodes": "1",
              "size_leaf_vector": "0"
            }
          },
          {
            "base_weights": [
              -9.859835e-4, -8.108181e-2, 4.9409777e-2, 9.8119676e-2,
              -1.377891e-2
            ],
            "categories": [],
            "categories_nodes": [],
            "categories_segments": [],
            "categories_sizes": [],
            "default_left": [1, 0, 1, 0, 0],
            "id": 55,
            "left_children": [1, -1, 3, -1, -1],
            "loss_changes": [2.3772217e-2, 0, 1.2515676e-2, 0, 0],
            "parents": [2147483647, 0, 0, 2, 2],
            "right_children": [2, -1, 4, -1, -1],
            "split_conditions": [
              5.8500004, -8.108181e-2, 4.95, 9.8119676e-2, -1.377891e-2
            ],
            "split_indices": [0, 0, 2, 0, 0],
            "split_type": [0, 0, 0, 0, 0],
            "sum_hessian": [
              3.8968246, 1.2697936, 2.627031, 1.1713074, 1.4557235
            ],
            "tree_param": {
              "num_deleted": "0",
              "num_feature": "4",
              "num_nodes": "5",
              "size_leaf_vector": "0"
            }
          },
          {
            "base_weights": [1.6555127e-2, -6.392012e-2, 8.7707475e-2],
            "categories": [],
            "categories_nodes": [],
            "categories_segments": [],
            "categories_sizes": [],
            "default_left": [1, 0, 0],
            "id": 56,
            "left_children": [1, -1, -1],
            "loss_changes": [3.0976774e-2, 0, 0],
            "parents": [2147483647, 0, 0],
            "right_children": [2, -1, -1],
            "split_conditions": [1.6500001, -6.392012e-2, 8.7707475e-2],
            "split_indices": [3, 0, 0],
            "split_type": [0, 0, 0],
            "sum_hessian": [3.4307523, 1.6576028, 1.7731495],
            "tree_param": {
              "num_deleted": "0",
              "num_feature": "4",
              "num_nodes": "3",
              "size_leaf_vector": "0"
            }
          },
          {
            "base_weights": [0],
            "categories": [],
            "categories_nodes": [],
            "categories_segments": [],
            "categories_sizes": [],
            "default_left": [0],
            "id": 57,
            "left_children": [-1],
            "loss_changes": [0],
            "parents": [2147483647],
            "right_children": [-1],
            "split_conditions": [0],
            "split_indices": [0],
            "split_type": [0],
            "sum_hessian": [9.4926065e-1],
            "tree_param": {
              "num_deleted": "0",
              "num_feature": "4",
              "num_nodes": "1",
              "size_leaf_vector": "0"
            }
          },
          {
            "base_weights": [
              4.652424e-3, 4.031354e-2, -6.286566e-2, -3.6489014e-2, 8.678045e-2
            ],
            "categories": [],
            "categories_nodes": [],
            "categories_segments": [],
            "categories_sizes": [],
            "default_left": [1, 1, 0, 0, 0],
            "id": 58,
            "left_children": [1, 3, -1, -1, -1],
            "loss_changes": [1.4111565e-2, 1.6569836e-2, 0, 0, 0],
            "parents": [2147483647, 0, 0, 1, 1],
            "right_children": [2, 4, -1, -1, -1],
            "split_conditions": [
              1.75, 5.8500004, -6.286566e-2, -3.6489014e-2, 8.678045e-2
            ],
            "split_indices": [3, 0, 0, 0, 0],
            "split_type": [0, 0, 0, 0, 0],
            "sum_hessian": [
              3.8082783, 2.7557125, 1.0525659, 1.1197205, 1.6359919
            ],
            "tree_param": {
              "num_deleted": "0",
              "num_feature": "4",
              "num_nodes": "5",
              "size_leaf_vector": "0"
            }
          },
          {
            "base_weights": [1.4327317e-2, 7.0704006e-2, -5.9430547e-2],
            "categories": [],
            "categories_nodes": [],
            "categories_segments": [],
            "categories_sizes": [],
            "default_left": [1, 0, 0],
            "id": 59,
            "left_children": [1, -1, -1],
            "loss_changes": [2.2310749e-2, 0, 0],
            "parents": [2147483647, 0, 0],
            "right_children": [2, -1, -1],
            "split_conditions": [2.85, 7.0704006e-2, -5.9430547e-2],
            "split_indices": [1, 0, 0],
            "split_type": [0, 0, 0],
            "sum_hessian": [3.3549294, 1.9249791, 1.4299504],
            "tree_param": {
              "num_deleted": "0",
              "num_feature": "4",
              "num_nodes": "3",
              "size_leaf_vector": "0"
            }
          },
          {
            "base_weights": [0],
            "categories": [],
            "categories_nodes": [],
            "categories_segments": [],
            "categories_sizes": [],
            "default_left": [0],
            "id": 60,
            "left_children": [-1],
            "loss_changes": [0],
            "parents": [2147483647],
            "right_children": [-1],
            "split_conditions": [0],
            "split_indices": [0],
            "split_type": [0],
            "sum_hessian": [9.320651e-1],
            "tree_param": {
              "num_deleted": "0",
              "num_feature": "4",
              "num_nodes": "1",
              "size_leaf_vector": "0"
            }
          },
          {
            "base_weights": [6.3759694e-3, 5.8793783e-2, -3.9746016e-2],
            "categories": [],
            "categories_nodes": [],
            "categories_segments": [],
            "categories_sizes": [],
            "default_left": [1, 0, 0],
            "id": 61,
            "left_children": [1, -1, -1],
            "loss_changes": [1.3831571e-2, 0, 0],
            "parents": [2147483647, 0, 0],
            "right_children": [2, -1, -1],
            "split_conditions": [2.75, 5.8793783e-2, -3.9746016e-2],
            "split_indices": [1, 0, 0],
            "split_type": [0, 0, 0],
            "sum_hessian": [3.7545865, 1.628755, 2.1258316],
            "tree_param": {
              "num_deleted": "0",
              "num_feature": "4",
              "num_nodes": "3",
              "size_leaf_vector": "0"
            }
          },
          {
            "base_weights": [
              1.3813109e-2, -7.4386135e-2, 7.203846e-2, 9.004489e-2, 1.782053e-2
            ],
            "categories": [],
            "categories_nodes": [],
            "categories_segments": [],
            "categories_sizes": [],
            "default_left": [1, 0, 1, 0, 0],
            "id": 62,
            "left_children": [1, -1, 3, -1, -1],
            "loss_changes": [2.7488114e-2, 0, 1.4253668e-3, 0, 0],
            "parents": [2147483647, 0, 0, 2, 2],
            "right_children": [2, -1, 4, -1, -1],
            "split_conditions": [
              5.95, -7.4386135e-2, 6.25, 9.004489e-2, 1.782053e-2
            ],
            "split_indices": [0, 0, 0, 0, 0],
            "split_type": [0, 0, 0, 0, 0],
            "sum_hessian": [
              3.309171, 1.2055136, 2.1036575, 1.0831382, 1.0205191
            ],
            "tree_param": {
              "num_deleted": "0",
              "num_feature": "4",
              "num_nodes": "5",
              "size_leaf_vector": "0"
            }
          },
          {
            "base_weights": [0],
            "categories": [],
            "categories_nodes": [],
            "categories_segments": [],
            "categories_sizes": [],
            "default_left": [0],
            "id": 63,
            "left_children": [-1],
            "loss_changes": [0],
            "parents": [2147483647],
            "right_children": [-1],
            "split_conditions": [0],
            "split_indices": [0],
            "split_type": [0],
            "sum_hessian": [9.118679e-1],
            "tree_param": {
              "num_deleted": "0",
              "num_feature": "4",
              "num_nodes": "1",
              "size_leaf_vector": "0"
            }
          },
          {
            "base_weights": [
              8.307165e-3, -5.4668833e-2, 4.5145348e-2, 9.698939e-2,
              -1.6835108e-2
            ],
            "categories": [],
            "categories_nodes": [],
            "categories_segments": [],
            "categories_sizes": [],
            "default_left": [1, 0, 1, 0, 0],
            "id": 64,
            "left_children": [1, -1, 3, -1, -1],
            "loss_changes": [1.335531e-2, 0, 1.2907196e-2, 0, 0],
            "parents": [2147483647, 0, 0, 2, 2],
            "right_children": [2, -1, 4, -1, -1],
            "split_conditions": [
              5.8500004, -5.4668833e-2, 4.95, 9.698939e-2, -1.6835108e-2
            ],
            "split_indices": [0, 0, 2, 0, 0],
            "split_type": [0, 0, 0, 0, 0],
            "sum_hessian": [
              3.6929462, 1.1843085, 2.5086377, 1.0584502, 1.4501874
            ],
            "tree_param": {
              "num_deleted": "0",
              "num_feature": "4",
              "num_nodes": "5",
              "size_leaf_vector": "0"
            }
          },
          {
            "base_weights": [
              1.3217945e-2, 8.750152e-2, -3.785013e-2, -1.2412392e-1,
              7.249733e-2
            ],
            "categories": [],
            "categories_nodes": [],
            "categories_segments": [],
            "categories_sizes": [],
            "default_left": [1, 0, 1, 0, 0],
            "id": 65,
            "left_children": [1, -1, 3, -1, -1],
            "loss_changes": [1.9467378e-2, 0, 3.9670076e-2, 0, 0],
            "parents": [2147483647, 0, 0, 2, 2],
            "right_children": [2, -1, 4, -1, -1],
            "split_conditions": [
              2.65, 8.750152e-2, 1.75, -1.2412392e-1, 7.249733e-2
            ],
            "split_indices": [1, 0, 3, 0, 0],
            "split_type": [0, 0, 0, 0, 0],
            "sum_hessian": [
              3.258693, 1.0369368, 2.2217562, 1.1768245, 1.0449318
            ],
            "tree_param": {
              "num_deleted": "0",
              "num_feature": "4",
              "num_nodes": "5",
              "size_leaf_vector": "0"
            }
          },
          {
            "base_weights": [0],
            "categories": [],
            "categories_nodes": [],
            "categories_segments": [],
            "categories_sizes": [],
            "default_left": [0],
            "id": 66,
            "left_children": [-1],
            "loss_changes": [0],
            "parents": [2147483647],
            "right_children": [-1],
            "split_conditions": [0],
            "split_indices": [0],
            "split_type": [0],
            "sum_hessian": [8.918479e-1],
            "tree_param": {
              "num_deleted": "0",
              "num_feature": "4",
              "num_nodes": "1",
              "size_leaf_vector": "0"
            }
          },
          {
            "base_weights": [9.401858e-3, 6.1126344e-2, -3.7642103e-2],
            "categories": [],
            "categories_nodes": [],
            "categories_segments": [],
            "categories_sizes": [],
            "default_left": [1, 0, 0],
            "id": 67,
            "left_children": [1, -1, -1],
            "loss_changes": [1.3520794e-2, 0, 0],
            "parents": [2147483647, 0, 0],
            "right_children": [2, -1, -1],
            "split_conditions": [2.75, 6.1126344e-2, -3.7642103e-2],
            "split_indices": [1, 0, 0],
            "split_type": [0, 0, 0],
            "sum_hessian": [3.6109219, 1.5773224, 2.0335994],
            "tree_param": {
              "num_deleted": "0",
              "num_feature": "4",
              "num_nodes": "3",
              "size_leaf_vector": "0"
            }
          },
          {
            "base_weights": [1.4870415e-2, -7.0046134e-2, 7.124345e-2],
            "categories": [],
            "categories_nodes": [],
            "categories_segments": [],
            "categories_sizes": [],
            "default_left": [1, 0, 0],
            "id": 68,
            "left_children": [1, -1, -1],
            "loss_changes": [2.5007041e-2, 0, 0],
            "parents": [2147483647, 0, 0],
            "right_children": [2, -1, -1],
            "split_conditions": [5.95, -7.0046134e-2, 7.124345e-2],
            "split_indices": [0, 0, 0],
            "split_type": [0, 0, 0],
            "sum_hessian": [3.1814692, 1.1725987, 2.0088706],
            "tree_param": {
              "num_deleted": "0",
              "num_feature": "4",
              "num_nodes": "3",
              "size_leaf_vector": "0"
            }
          },
          {
            "base_weights": [0],
            "categories": [],
            "categories_nodes": [],
            "categories_segments": [],
            "categories_sizes": [],
            "default_left": [0],
            "id": 69,
            "left_children": [-1],
            "loss_changes": [0],
            "parents": [2147483647],
            "right_children": [-1],
            "split_conditions": [0],
            "split_indices": [0],
            "split_type": [0],
            "sum_hessian": [8.6929375e-1],
            "tree_param": {
              "num_deleted": "0",
              "num_feature": "4",
              "num_nodes": "1",
              "size_leaf_vector": "0"
            }
          },
          {
            "base_weights": [
              1.3752914e-2, -4.7769494e-2, 4.864049e-2, 9.6996e-2, -1.2475681e-2
            ],
            "categories": [],
            "categories_nodes": [],
            "categories_segments": [],
            "categories_sizes": [],
            "default_left": [1, 0, 1, 0, 0],
            "id": 70,
            "left_children": [1, -1, 3, -1, -1],
            "loss_changes": [1.2100423e-2, 0, 1.1264727e-2, 0, 0],
            "parents": [2147483647, 0, 0, 2, 2],
            "right_children": [2, -1, 4, -1, -1],
            "split_conditions": [
              5.8500004, -4.7769494e-2, 4.95, 9.6996e-2, -1.2475681e-2
            ],
            "split_indices": [0, 0, 2, 0, 0],
            "split_type": [0, 0, 0, 0, 0],
            "sum_hessian": [
              3.5550869, 1.152852, 2.4022348, 1.0133722, 1.3888626
            ],
            "tree_param": {
              "num_deleted": "0",
              "num_feature": "4",
              "num_nodes": "5",
              "size_leaf_vector": "0"
            }
          },
          {
            "base_weights": [1.0805856e-2, 6.441769e-2, -5.9223168e-2],
            "categories": [],
            "categories_nodes": [],
            "categories_segments": [],
            "categories_sizes": [],
            "default_left": [1, 0, 0],
            "id": 71,
            "left_children": [1, -1, -1],
            "loss_changes": [1.9335475e-2, 0, 0],
            "parents": [2147483647, 0, 0],
            "right_children": [2, -1, -1],
            "split_conditions": [2.85, 6.441769e-2, -5.9223168e-2],
            "split_indices": [1, 0, 0],
            "split_type": [0, 0, 0],
            "sum_hessian": [3.1339548, 1.8204268, 1.313528],
            "tree_param": {
              "num_deleted": "0",
              "num_feature": "4",
              "num_nodes": "3",
              "size_leaf_vector": "0"
            }
          },
          {
            "base_weights": [0],
            "categories": [],
            "categories_nodes": [],
            "categories_segments": [],
            "categories_sizes": [],
            "default_left": [0],
            "id": 72,
            "left_children": [-1],
            "loss_changes": [0],
            "parents": [2147483647],
            "right_children": [-1],
            "split_conditions": [0],
            "split_indices": [0],
            "split_type": [0],
            "sum_hessian": [8.5578e-1],
            "tree_param": {
              "num_deleted": "0",
              "num_feature": "4",
              "num_nodes": "1",
              "size_leaf_vector": "0"
            }
          },
          {
            "base_weights": [1.5357951e-2, 5.9626132e-2, -4.445711e-2],
            "categories": [],
            "categories_nodes": [],
            "categories_segments": [],
            "categories_sizes": [],
            "default_left": [1, 0, 0],
            "id": 73,
            "left_children": [1, -1, -1],
            "loss_changes": [1.4620719e-2, 0, 0],
            "parents": [2147483647, 0, 0],
            "right_children": [2, -1, -1],
            "split_conditions": [1.6500001, 5.9626132e-2, -4.445711e-2],
            "split_indices": [3, 0, 0],
            "split_type": [0, 0, 0],
            "sum_hessian": [3.5205233, 2.0250065, 1.4955168],
            "tree_param": {
              "num_deleted": "0",
              "num_feature": "4",
              "num_nodes": "3",
              "size_leaf_vector": "0"
            }
          },
          {
            "base_weights": [
              1.105998e-2, -4.5441948e-2, 9.299322e-2, 2.499844e-4, -6.985617e-2
            ],
            "categories": [],
            "categories_nodes": [],
            "categories_segments": [],
            "categories_sizes": [],
            "default_left": [1, 1, 0, 0, 0],
            "id": 74,
            "left_children": [1, 3, -1, -1, -1],
            "loss_changes": [2.3242844e-2, 3.4789806e-3, 0, 0, 0],
            "parents": [2147483647, 0, 0, 1, 1],
            "right_children": [2, 4, -1, -1, -1],
            "split_conditions": [
              1.75, 1.55, 9.299322e-2, 2.499844e-4, -6.985617e-2
            ],
            "split_indices": [3, 3, 0, 0, 0],
            "split_type": [0, 0, 0, 0, 0],
            "sum_hessian": [3.1079, 2.1030176, 1.0048822, 1.0770493, 1.0259684],
            "tree_param": {
              "num_deleted": "0",
              "num_feature": "4",
              "num_nodes": "5",
              "size_leaf_vector": "0"
            }
          },
          {
            "base_weights": [0],
            "categories": [],
            "categories_nodes": [],
            "categories_segments": [],
            "categories_sizes": [],
            "default_left": [0],
            "id": 75,
            "left_children": [-1],
            "loss_changes": [0],
            "parents": [2147483647],
            "right_children": [-1],
            "split_conditions": [0],
            "split_indices": [0],
            "split_type": [0],
            "sum_hessian": [8.5063046e-1],
            "tree_param": {
              "num_deleted": "0",
              "num_feature": "4",
              "num_nodes": "1",
              "size_leaf_vector": "0"
            }
          },
          {
            "base_weights": [1.1113959e-2, 5.1460627e-2, -2.7169261e-2],
            "categories": [],
            "categories_nodes": [],
            "categories_segments": [],
            "categories_sizes": [],
            "default_left": [1, 0, 0],
            "id": 76,
            "left_children": [1, -1, -1],
            "loss_changes": [8.291813e-3, 0, 0],
            "parents": [2147483647, 0, 0],
            "right_children": [2, -1, -1],
            "split_conditions": [2.75, 5.1460627e-2, -2.7169261e-2],
            "split_indices": [1, 0, 0],
            "split_type": [0, 0, 0],
            "sum_hessian": [3.463074, 1.5185094, 1.9445647],
            "tree_param": {
              "num_deleted": "0",
              "num_feature": "4",
              "num_nodes": "3",
              "size_leaf_vector": "0"
            }
          },
          {
            "base_weights": [1.1427702e-2, -6.173495e-2, 6.0830284e-2],
            "categories": [],
            "categories_nodes": [],
            "categories_segments": [],
            "categories_sizes": [],
            "default_left": [1, 0, 0],
            "id": 77,
            "left_children": [1, -1, -1],
            "loss_changes": [1.837273e-2, 0, 0],
            "parents": [2147483647, 0, 0],
            "right_children": [2, -1, -1],
            "split_conditions": [5.95, -6.173495e-2, 6.0830284e-2],
            "split_indices": [0, 0, 0],
            "split_type": [0, 0, 0],
            "sum_hessian": [3.044178, 1.1264033, 1.9177748],
            "tree_param": {
              "num_deleted": "0",
              "num_feature": "4",
              "num_nodes": "3",
              "size_leaf_vector": "0"
            }
          },
          {
            "base_weights": [0],
            "categories": [],
            "categories_nodes": [],
            "categories_segments": [],
            "categories_sizes": [],
            "default_left": [0],
            "id": 78,
            "left_children": [-1],
            "loss_changes": [0],
            "parents": [2147483647],
            "right_children": [-1],
            "split_conditions": [0],
            "split_indices": [0],
            "split_type": [0],
            "sum_hessian": [8.334124e-1],
            "tree_param": {
              "num_deleted": "0",
              "num_feature": "4",
              "num_nodes": "1",
              "size_leaf_vector": "0"
            }
          },
          {
            "base_weights": [
              1.353567e-2, -5.2670866e-2, 5.1812623e-2, -9.604373e-3,
              8.566164e-2
            ],
            "categories": [],
            "categories_nodes": [],
            "categories_segments": [],
            "categories_sizes": [],
            "default_left": [1, 0, 1, 0, 0],
            "id": 79,
            "left_children": [1, -1, 3, -1, -1],
            "loss_changes": [1.3932061e-2, 0, 7.6942416e-3, 0, 0],
            "parents": [2147483647, 0, 0, 2, 2],
            "right_children": [2, -1, 4, -1, -1],
            "split_conditions": [
              5.8500004, -5.2670866e-2, 2.85, -9.604373e-3, 8.566164e-2
            ],
            "split_indices": [0, 0, 1, 0, 0],
            "split_type": [0, 0, 0, 0, 0],
            "sum_hessian": [
              3.4207697, 1.1154177, 2.305352, 1.0736101, 1.2317419
            ],
            "tree_param": {
              "num_deleted": "0",
              "num_feature": "4",
              "num_nodes": "5",
              "size_leaf_vector": "0"
            }
          },
          {
            "base_weights": [9.189887e-3, 6.268483e-2, -5.9203047e-2],
            "categories": [],
            "categories_nodes": [],
            "categories_segments": [],
            "categories_sizes": [],
            "default_left": [1, 0, 0],
            "id": 80,
            "left_children": [1, -1, -1],
            "loss_changes": [1.8374955e-2, 0, 0],
            "parents": [2147483647, 0, 0],
            "right_children": [2, -1, -1],
            "split_conditions": [2.85, 6.268483e-2, -5.9203047e-2],
            "split_indices": [1, 0, 0],
            "split_type": [0, 0, 0],
            "sum_hessian": [3.0079591, 1.7346374, 1.2733217],
            "tree_param": {
              "num_deleted": "0",
              "num_feature": "4",
              "num_nodes": "3",
              "size_leaf_vector": "0"
            }
          },
          {
            "base_weights": [0],
            "categories": [],
            "categories_nodes": [],
            "categories_segments": [],
            "categories_sizes": [],
            "default_left": [0],
            "id": 81,
            "left_children": [-1],
            "loss_changes": [0],
            "parents": [2147483647],
            "right_children": [-1],
            "split_conditions": [0],
            "split_indices": [0],
            "split_type": [0],
            "sum_hessian": [8.2107025e-1],
            "tree_param": {
              "num_deleted": "0",
              "num_feature": "4",
              "num_nodes": "1",
              "size_leaf_vector": "0"
            }
          },
          {
            "base_weights": [1.3209032e-2, 6.39496e-2, -3.588089e-2],
            "categories": [],
            "categories_nodes": [],
            "categories_segments": [],
            "categories_sizes": [],
            "default_left": [1, 0, 0],
            "id": 82,
            "left_children": [1, -1, -1],
            "loss_changes": [1.3265532e-2, 0, 0],
            "parents": [2147483647, 0, 0],
            "right_children": [2, -1, -1],
            "split_conditions": [2.75, 6.39496e-2, -3.588089e-2],
            "split_indices": [1, 0, 0],
            "split_type": [0, 0, 0],
            "sum_hessian": [3.4045053, 1.5252577, 1.8792475],
            "tree_param": {
              "num_deleted": "0",
              "num_feature": "4",
              "num_nodes": "3",
              "size_leaf_vector": "0"
            }
          },
          {
            "base_weights": [1.1884497e-2, -5.1011495e-2, 7.1058325e-2],
            "categories": [],
            "categories_nodes": [],
            "categories_segments": [],
            "categories_sizes": [],
            "default_left": [1, 0, 0],
            "id": 83,
            "left_children": [1, -1, -1],
            "loss_changes": [1.8505657e-2, 0, 0],
            "parents": [2147483647, 0, 0],
            "right_children": [2, -1, -1],
            "split_conditions": [1.6500001, -5.1011495e-2, 7.1058325e-2],
            "split_indices": [3, 0, 0],
            "split_type": [0, 0, 0],
            "sum_hessian": [2.9983013, 1.5203046, 1.4779966],
            "tree_param": {
              "num_deleted": "0",
              "num_feature": "4",
              "num_nodes": "3",
              "size_leaf_vector": "0"
            }
          },
          {
            "base_weights": [0],
            "categories": [],
            "categories_nodes": [],
            "categories_segments": [],
            "categories_sizes": [],
            "default_left": [0],
            "id": 84,
            "left_children": [-1],
            "loss_changes": [0],
            "parents": [2147483647],
            "right_children": [-1],
            "split_conditions": [0],
            "split_indices": [0],
            "split_type": [0],
            "sum_hessian": [8.01663e-1],
            "tree_param": {
              "num_deleted": "0",
              "num_feature": "4",
              "num_nodes": "1",
              "size_leaf_vector": "0"
            }
          },
          {
            "base_weights": [
              1.3134544e-2, -3.893026e-2, 4.201282e-2, 6.6795344e-3,
              5.7725146e-2
            ],
            "categories": [],
            "categories_nodes": [],
            "categories_segments": [],
            "categories_sizes": [],
            "default_left": [1, 0, 1, 0, 0],
            "id": 85,
            "left_children": [1, -1, 3, -1, -1],
            "loss_changes": [8.176166e-3, 0, 1.4348631e-3, 0, 0],
            "parents": [2147483647, 0, 0, 2, 2],
            "right_children": [2, -1, 4, -1, -1],
            "split_conditions": [
              2.65, -3.893026e-2, 1.6500001, 6.6795344e-3, 5.7725146e-2
            ],
            "split_indices": [1, 0, 3, 0, 0],
            "split_type": [0, 0, 0, 0, 0],
            "sum_hessian": [
              3.350126, 1.0710474, 2.2790785, 1.140186, 1.1388925
            ],
            "tree_param": {
              "num_deleted": "0",
              "num_feature": "4",
              "num_nodes": "5",
              "size_leaf_vector": "0"
            }
          },
          {
            "base_weights": [1.2432399e-2, -5.032236e-2, 5.3355437e-2],
            "categories": [],
            "categories_nodes": [],
            "categories_segments": [],
            "categories_sizes": [],
            "default_left": [1, 0, 0],
            "id": 86,
            "left_children": [1, -1, -1],
            "loss_changes": [1.2835871e-2, 0, 0],
            "parents": [2147483647, 0, 0],
            "right_children": [2, -1, -1],
            "split_conditions": [5.95, -5.032236e-2, 5.3355437e-2],
            "split_indices": [0, 0, 0],
            "split_type": [0, 0, 0],
            "sum_hessian": [2.952665, 1.0747981, 1.8778669],
            "tree_param": {
              "num_deleted": "0",
              "num_feature": "4",
              "num_nodes": "3",
              "size_leaf_vector": "0"
            }
          },
          {
            "base_weights": [0],
            "categories": [],
            "categories_nodes": [],
            "categories_segments": [],
            "categories_sizes": [],
            "default_left": [0],
            "id": 87,
            "left_children": [-1],
            "loss_changes": [0],
            "parents": [2147483647],
            "right_children": [-1],
            "split_conditions": [0],
            "split_indices": [0],
            "split_type": [0],
            "sum_hessian": [8.002348e-1],
            "tree_param": {
              "num_deleted": "0",
              "num_feature": "4",
              "num_nodes": "1",
              "size_leaf_vector": "0"
            }
          },
          {
            "base_weights": [
              1.4752414e-2, -3.929005e-2, 4.451896e-2, 3.942157e-3, 6.1876692e-2
            ],
            "categories": [],
            "categories_nodes": [],
            "categories_segments": [],
            "categories_sizes": [],
            "default_left": [1, 0, 1, 0, 0],
            "id": 88,
            "left_children": [1, -1, 3, -1, -1],
            "loss_changes": [8.728107e-3, 0, 2.056606e-3, 0, 0],
            "parents": [2147483647, 0, 0, 2, 2],
            "right_children": [2, -1, 4, -1, -1],
            "split_conditions": [
              5.8500004, -3.929005e-2, 2.85, 3.942157e-3, 6.1876692e-2
            ],
            "split_indices": [0, 0, 1, 0, 0],
            "split_type": [0, 0, 0, 0, 0],
            "sum_hessian": [
              3.3383732, 1.0720606, 2.2663126, 1.046663, 1.2196496
            ],
            "tree_param": {
              "num_deleted": "0",
              "num_feature": "4",
              "num_nodes": "5",
              "size_leaf_vector": "0"
            }
          },
          {
            "base_weights": [1.075564e-2, -4.071706e-2, 5.788434e-2],
            "categories": [],
            "categories_nodes": [],
            "categories_segments": [],
            "categories_sizes": [],
            "default_left": [1, 0, 0],
            "id": 89,
            "left_children": [1, -1, -1],
            "loss_changes": [1.1895749e-2, 0, 0],
            "parents": [2147483647, 0, 0],
            "right_children": [2, -1, -1],
            "split_conditions": [1.6500001, -4.071706e-2, 5.788434e-2],
            "split_indices": [3, 0, 0],
            "split_type": [0, 0, 0],
            "sum_hessian": [2.9321895, 1.46653, 1.4656595],
            "tree_param": {
              "num_deleted": "0",
              "num_feature": "4",
              "num_nodes": "3",
              "size_leaf_vector": "0"
            }
          },
          {
            "base_weights": [0],
            "categories": [],
            "categories_nodes": [],
            "categories_segments": [],
            "categories_sizes": [],
            "default_left": [0],
            "id": 90,
            "left_children": [-1],
            "loss_changes": [0],
            "parents": [2147483647],
            "right_children": [-1],
            "split_conditions": [0],
            "split_indices": [0],
            "split_type": [0],
            "sum_hessian": [7.892311e-1],
            "tree_param": {
              "num_deleted": "0",
              "num_feature": "4",
              "num_nodes": "1",
              "size_leaf_vector": "0"
            }
          },
          {
            "base_weights": [1.3061327e-2, 5.205395e-2, -2.5161285e-2],
            "categories": [],
            "categories_nodes": [],
            "categories_segments": [],
            "categories_sizes": [],
            "default_left": [1, 0, 0],
            "id": 91,
            "left_children": [1, -1, -1],
            "loss_changes": [7.737509e-3, 0, 0],
            "parents": [2147483647, 0, 0],
            "right_children": [2, -1, -1],
            "split_conditions": [2.75, 5.205395e-2, -2.5161285e-2],
            "split_indices": [1, 0, 0],
            "split_type": [0, 0, 0],
            "sum_hessian": [3.312778, 1.4607439, 1.8520341],
            "tree_param": {
              "num_deleted": "0",
              "num_feature": "4",
              "num_nodes": "3",
              "size_leaf_vector": "0"
            }
          },
          {
            "base_weights": [1.4294061e-2, -3.7012905e-2, 5.8336254e-2],
            "categories": [],
            "categories_nodes": [],
            "categories_segments": [],
            "categories_sizes": [],
            "default_left": [1, 0, 0],
            "id": 92,
            "left_children": [1, -1, -1],
            "loss_changes": [1.0989951e-2, 0, 0],
            "parents": [2147483647, 0, 0],
            "right_children": [2, -1, -1],
            "split_conditions": [4.95, -3.7012905e-2, 5.8336254e-2],
            "split_indices": [2, 0, 0],
            "split_type": [0, 0, 0],
            "sum_hessian": [2.9079833, 1.4169317, 1.4910516],
            "tree_param": {
              "num_deleted": "0",
              "num_feature": "4",
              "num_nodes": "3",
              "size_leaf_vector": "0"
            }
          },
          {
            "base_weights": [0],
            "categories": [],
            "categories_nodes": [],
            "categories_segments": [],
            "categories_sizes": [],
            "default_left": [0],
            "id": 93,
            "left_children": [-1],
            "loss_changes": [0],
            "parents": [2147483647],
            "right_children": [-1],
            "split_conditions": [0],
            "split_indices": [0],
            "split_type": [0],
            "sum_hessian": [7.7190185e-1],
            "tree_param": {
              "num_deleted": "0",
              "num_feature": "4",
              "num_nodes": "1",
              "size_leaf_vector": "0"
            }
          },
          {
            "base_weights": [
              1.3254305e-2, -4.139441e-2, 4.356748e-2, 5.2638324e-3,
              6.1735857e-2
            ],
            "categories": [],
            "categories_nodes": [],
            "categories_segments": [],
            "categories_sizes": [],
            "default_left": [1, 0, 1, 0, 0],
            "id": 94,
            "left_children": [1, -1, 3, -1, -1],
            "loss_changes": [8.881792e-3, 0, 1.9267262e-3, 0, 0],
            "parents": [2147483647, 0, 0, 2, 2],
            "right_children": [2, -1, 4, -1, -1],
            "split_conditions": [
              2.65, -4.139441e-2, 4.95, 5.2638324e-3, 6.1735857e-2
            ],
            "split_indices": [1, 0, 2, 0, 0],
            "split_type": [0, 0, 0, 0, 0],
            "sum_hessian": [
              3.2728746, 1.0372884, 2.2355862, 1.1341755, 1.1014107
            ],
            "tree_param": {
              "num_deleted": "0",
              "num_feature": "4",
              "num_nodes": "5",
              "size_leaf_vector": "0"
            }
          },
          {
            "base_weights": [1.38059715e-2, 5.5334404e-2, -4.060967e-2],
            "categories": [],
            "categories_nodes": [],
            "categories_segments": [],
            "categories_sizes": [],
            "default_left": [1, 0, 0],
            "id": 95,
            "left_children": [1, -1, -1],
            "loss_changes": [1.0998225e-2, 0, 0],
            "parents": [2147483647, 0, 0],
            "right_children": [2, -1, -1],
            "split_conditions": [2.85, 5.5334404e-2, -4.060967e-2],
            "split_indices": [1, 0, 0],
            "split_type": [0, 0, 0],
            "sum_hessian": [2.8725233, 1.6196043, 1.252919],
            "tree_param": {
              "num_deleted": "0",
              "num_feature": "4",
              "num_nodes": "3",
              "size_leaf_vector": "0"
            }
          },
          {
            "base_weights": [0],
            "categories": [],
            "categories_nodes": [],
            "categories_segments": [],
            "categories_sizes": [],
            "default_left": [0],
            "id": 96,
            "left_children": [-1],
            "loss_changes": [0],
            "parents": [2147483647],
            "right_children": [-1],
            "split_conditions": [0],
            "split_indices": [0],
            "split_type": [0],
            "sum_hessian": [7.7407706e-1],
            "tree_param": {
              "num_deleted": "0",
              "num_feature": "4",
              "num_nodes": "1",
              "size_leaf_vector": "0"
            }
          },
          {
            "base_weights": [1.3954889e-2, 5.8218896e-2, -2.9040243e-2],
            "categories": [],
            "categories_nodes": [],
            "categories_segments": [],
            "categories_sizes": [],
            "default_left": [1, 0, 0],
            "id": 97,
            "left_children": [1, -1, -1],
            "loss_changes": [9.821737e-3, 0, 0],
            "parents": [2147483647, 0, 0],
            "right_children": [2, -1, -1],
            "split_conditions": [2.75, 5.8218896e-2, -2.9040243e-2],
            "split_indices": [1, 0, 0],
            "split_type": [0, 0, 0],
            "sum_hessian": [3.272444, 1.4379629, 1.8344812],
            "tree_param": {
              "num_deleted": "0",
              "num_feature": "4",
              "num_nodes": "3",
              "size_leaf_vector": "0"
            }
          },
          {
            "base_weights": [1.323605e-2, -3.6446176e-2, 5.7754926e-2],
            "categories": [],
            "categories_nodes": [],
            "categories_segments": [],
            "categories_sizes": [],
            "default_left": [1, 0, 0],
            "id": 98,
            "left_children": [1, -1, -1],
            "loss_changes": [1.065414e-2, 0, 0],
            "parents": [2147483647, 0, 0],
            "right_children": [2, -1, -1],
            "split_conditions": [1.6500001, -3.6446176e-2, 5.7754926e-2],
            "split_indices": [3, 0, 0],
            "split_type": [0, 0, 0],
            "sum_hessian": [2.8652706, 1.4398062, 1.4254644],
            "tree_param": {
              "num_deleted": "0",
              "num_feature": "4",
              "num_nodes": "3",
              "size_leaf_vector": "0"
            }
          },
          {
            "base_weights": [0],
            "categories": [],
            "categories_nodes": [],
            "categories_segments": [],
            "categories_sizes": [],
            "default_left": [0],
            "id": 99,
            "left_children": [-1],
            "loss_changes": [0],
            "parents": [2147483647],
            "right_children": [-1],
            "split_conditions": [0],
            "split_indices": [0],
            "split_type": [0],
            "sum_hessian": [7.5876474e-1],
            "tree_param": {
              "num_deleted": "0",
              "num_feature": "4",
              "num_nodes": "1",
              "size_leaf_vector": "0"
            }
          },
          {
            "base_weights": [
              1.4019761e-2, -3.5724327e-2, 4.0870182e-2, 3.3579806e-3,
              5.8711797e-2
            ],
            "categories": [],
